//Numpy array shape [32, 5]
//Min -0.823110818863
//Max 0.644206345081
//Number of zeros 0

#ifndef W12_H_
#define W12_H_

#ifndef __SYNTHESIS__
model_default_t w12[160];
#else
model_default_t w12[160] = {0.2170931846, 0.2989364564, -0.3501430452, -0.3192566335, 0.1402701437, 0.0815133527, 0.1339074671, 0.3926092088, -0.0879573151, 0.3255947530, 0.1432833672, 0.0724190474, -0.7098714113, 0.1155445501, 0.2946489453, -0.3763526082, -0.4844244719, -0.2054945379, 0.6442063451, 0.0187997241, 0.2555902600, 0.1407896131, -0.4008549154, 0.0003435761, -0.2406054139, 0.0799703524, 0.3612408340, -0.0639495105, 0.1080347449, 0.1705640405, -0.2766163051, 0.2385469526, 0.1213507652, 0.5484820604, 0.0363702662, 0.2598336041, 0.0722468644, 0.1938119829, -0.1956686676, 0.4605051577, -0.1450934857, -0.3144947290, 0.1287928820, 0.0464713164, 0.3405386209, 0.0991859511, 0.3201223016, 0.0930346027, -0.4429115951, -0.3267578185, -0.3040098250, 0.0421760753, -0.0024515497, 0.5144104362, -0.4292126596, -0.0864786357, -0.0417449884, 0.0155681353, -0.3836063445, 0.6432480812, 0.2397960871, 0.1822942495, 0.3705988824, -0.5109498501, -0.0361782350, 0.0955125317, -0.3922584057, 0.3538727462, 0.3634110093, 0.1415687948, 0.1382621527, 0.2042363435, 0.2632122338, -0.4521069229, 0.4125706255, 0.1362664551, -0.0547247529, -0.4265979826, -0.2780655622, 0.1276930273, 0.1066628098, -0.3449712694, 0.4512792826, -0.1737119853, -0.3993419111, -0.2892195582, 0.2687721550, -0.0379426293, 0.5034688711, -0.5051173568, 0.0260142721, -0.2969751656, -0.1301717013, 0.3620167673, -0.5601933002, -0.1864216030, 0.3461318612, 0.1484459788, 0.0983854681, 0.2736265063, 0.1476338357, -0.3596112132, -0.1440283358, 0.0158190094, -0.4136248529, 0.0743836090, -0.0229924843, 0.2284637839, -0.5711724758, -0.4377238154, 0.1447751820, 0.3586927652, -0.2539364696, -0.2402200401, 0.2088654935, 0.4581939876, -0.0508675277, -0.1796722561, -0.0242381450, -0.6722452641, -0.2786393762, -0.1069935560, 0.1826569289, 0.0030928531, 0.4073354304, 0.4347268045, -0.2033477277, -0.4676381946, 0.0403164402, -0.0859351084, -0.0332629681, 0.1828968525, 0.2013715208, 0.0514191426, -0.5480832458, -0.3814545870, -0.3655904830, -0.1228693277, 0.2491067648, 0.0969213620, 0.2509725094, 0.2375316769, 0.2136645317, 0.2335331738, -0.8231108189, 0.2360102981, -0.0004675406, -0.2900217175, 0.3199506700, 0.3084987402, 0.1166233495, 0.1247051656, -0.1228413805, -0.3353091180, 0.1521861553, 0.2353757918, 0.2693773210, 0.0201864541, 0.3921311200, -0.6368077993};
#endif

#endif
