//Numpy array shape [64, 32]
//Min -0.699616789818
//Max 0.630367577076
//Number of zeros 0

#ifndef W6_H_
#define W6_H_

#ifndef __SYNTHESIS__
model_default_t w6[2048];
#else
model_default_t w6[2048] = {-0.1276460439, 0.0093451208, -0.0006865495, 0.0011554378, -0.0658270642, 0.1072315127, -0.0000133478, 0.1699290425, 0.0434528738, -0.0551821552, 0.0157538857, 0.0000180853, -0.0328368060, 0.0618619472, 0.2666383982, -0.1069490239, 0.0533852652, -0.0005193523, -0.1167470068, 0.0259293169, -0.0949430689, -0.1772353202, -0.0135431159, -0.1739333123, -0.2527432442, 0.0440696254, -0.1358326674, -0.0624140501, -0.0259014908, 0.1797007173, 0.0687245131, -0.0655261204, -0.0255601667, 0.1715935320, 0.0028540981, -0.2095713466, 0.2577836215, -0.1389996707, 0.0000628982, 0.1461699903, -0.1451223195, -0.2474257052, -0.2709051967, 0.0000011647, 0.0333464593, 0.1745652109, 0.0891911760, -0.0018361548, -0.0350871645, -0.0903954208, 0.0001903310, -0.0766912922, -0.2992736995, 0.0695604756, 0.1798701286, -0.0433346815, -0.0361441374, 0.2330259979, 0.0790902227, -0.0170280654, -0.1922929138, 0.0686906800, -0.0902802795, 0.2452780604, 0.0416560508, -0.0687967464, -0.0136554046, -0.0112407152, -0.1258904636, 0.1521293074, -0.0000004709, 0.2141964585, 0.1613730788, -0.0397345871, 0.0210736021, 0.0000044602, -0.1342913806, -0.0686170608, 0.0817594603, 0.0231576078, 0.1490632743, 0.0028557938, 0.1599742919, 0.1220443845, -0.1069440991, 0.0736566037, 0.0431266874, -0.0005625205, 0.0000464638, 0.0734259412, -0.0394456014, 0.1449773461, 0.2197247446, 0.1284833699, -0.0502187982, 0.0003346301, -0.0030426269, -0.0226434693, -0.1952815950, 0.0002457203, -0.0992590040, 0.4370533228, -0.0000987965, 0.0478538238, 0.0487633124, -0.1033557951, 0.4275111258, 0.0000092684, 0.3301915824, 0.0181252006, 0.0811138377, -0.0003515937, 0.3057218790, 0.0141193280, -0.1051849574, 0.2039987147, 0.0001678931, -0.2662899196, -0.0623082593, 0.0000053855, 0.1009937003, -0.2609067261, -0.2276428342, 0.0368914343, 0.0419405699, -0.1316627264, 0.2746776044, -0.0237309318, -0.0434983298, 0.1719560772, 0.2860367000, -0.0767900795, 0.0361724719, -0.1624568701, -0.0001205868, 0.1829611063, 0.1768939197, 0.0937430486, -0.0009197124, -0.0000002824, 0.0010277854, 0.2109699994, -0.0070011523, -0.0671184584, -0.0411519855, -0.0273020342, 0.0944908410, -0.1773666441, -0.2039408982, 0.1509473473, 0.0463385843, -0.0097428365, -0.0466872863, 0.0544043742, 0.0578655899, 0.0747883320, -0.2747312784, -0.1208647117, -0.1311583221, 0.3099000156, -0.1263068765, -0.2158060521, -0.2004714161, 0.0378028713, 0.0162767023, 0.0362023450, -0.0213641394, -0.1295731813, 0.1868412495, -0.0026287579, 0.0055093654, -0.0000081893, -0.2279411703, -0.0001304861, -0.3124789298, -0.0197487660, 0.0157027598, 0.2826564312, -0.1526589692, -0.0943922624, 0.0634618029, 0.2439026088, 0.0077645485, 0.0893724859, -0.2617892921, -0.0485862046, -0.1913197786, 0.0013980620, 0.1436468065, 0.2166097015, -0.1522302181, -0.2141230255, -0.0719964877, 0.0541720465, -0.0825528726, -0.0004732303, -0.0525672920, 0.2168672681, 0.0000587365, 0.0005175838, -0.1058711261, -0.0694969893, 0.0023849506, 0.0000286454, 0.1825906485, 0.2196049690, 0.0495966822, 0.0001320306, 0.1060251445, -0.1391547173, -0.0082484866, -0.0406275392, -0.0001311555, 0.0339765958, -0.0267786458, -0.1205902174, 0.0750826225, -0.0019944692, -0.0007586424, 0.1682860553, -0.0892612562, 0.0003786306, 0.0856715515, 0.1353559494, 0.0047494955, 0.0060429741, -0.0081598330, 0.0754724592, 0.0551192798, 0.2559402585, -0.0001703065, 0.0634223223, -0.0262847096, 0.1858799160, 0.1992682219, 0.0000013716, 0.2619742751, -0.2178682685, -0.0665497556, -0.2022151202, -0.0144833280, 0.6303675771, -0.4050954282, 0.3438928425, 0.0933229774, -0.0012187884, -0.0989185199, -0.1783029139, 0.0729351044, -0.5501992702, -0.0800448358, -0.2125470638, 0.2859155238, 0.1123590171, 0.0323202275, -0.3903283775, 0.0707746148, -0.1363844126, -0.0946801603, 0.0397047065, -0.0005129519, 0.0063718604, 0.0058081322, 0.2183173597, -0.0401198156, -0.0761675239, 0.1767499745, -0.0000011499, -0.0591253377, 0.0105981827, -0.0839321837, 0.0740919262, 0.0112776356, 0.0374575891, -0.1326879710, 0.1441479027, 0.0902582780, -0.2045997083, -0.1581571698, 0.0034408651, 0.0613563955, -0.1219020784, 0.1549433470, 0.0108173154, 0.1277836710, -0.0008998830, 0.1648101807, -0.0838752612, 0.2203586847, 0.1019975767, -0.0000468106, 0.1245727167, -0.1784810871, -0.2684215903, -0.0002503706, -0.2640378475, -0.0005928323, 0.0661948845, 0.2426052839, -0.0000070854, 0.0592620037, -0.0126451999, -0.3590513170, 0.0016681204, -0.0064404933, -0.0507272482, 0.1323659718, 0.0319533646, 0.1236133054, -0.0160042178, 0.1264108121, 0.4198796749, 0.0758269206, 0.2984765172, 0.0030214994, 0.0666930005, -0.0768824667, 0.0881625116, -0.1055216566, -0.0131339785, -0.0960142985, 0.1551216543, 0.2547051609, -0.0392827541, 0.0003403478, -0.1459124684, -0.0000573699, -0.1092487574, 0.0398626067, 0.0952560902, -0.2262013853, 0.0000033836, -0.1199770644, 0.1963710040, 0.0092052678, 0.2730304599, -0.0743330643, -0.0673127547, 0.1629569232, 0.0937064663, -0.1425966918, 0.1973242462, 0.1684076786, 0.2152072191, -0.0072091399, 0.0552833565, 0.0226367172, 0.0916390568, -0.0570043810, 0.0027384365, -0.1065872982, 0.4156269133, -0.0146961482, -0.0447663590, 0.0288179647, -0.0772801191, 0.0020340311, -0.1272043586, -0.0001048803, -0.0278131720, -0.0403651744, 0.1734511107, -0.1339935064, -0.0000163290, 0.0533487089, -0.1032822207, 0.0702114776, 0.1233009622, 0.0797764733, -0.0104430392, -0.0654444396, -0.0019866116, -0.0546957627, -0.0001647727, 0.0561373122, -0.0913562402, 0.0769648924, -0.1282106787, -0.0670711622, 0.1157973632, 0.0213639475, 0.1625945121, 0.0305544119, 0.0745438859, 0.1326816976, 0.0027811744, -0.0016421212, -0.0060954876, 0.0187401716, 0.0308793783, -0.0017973299, 0.0035595412, 0.0005175062, 0.1647727042, 0.0569094270, -0.0000192800, 0.0291432161, 0.0593783967, 0.1316439658, 0.2036720961, -0.1479045749, 0.0071155424, -0.0000532682, 0.3577057421, 0.0002320195, 0.1151307225, -0.0265889410, 0.1462499499, 0.1035578027, -0.0444135778, 0.1144990176, 0.1044103801, 0.0449960157, 0.0442665517, -0.0188432205, -0.0148378946, -0.0882430524, 0.1172068343, 0.3402127624, -0.0166995078, 0.0470159352, -0.3240455389, -0.0002679713, -0.1061622351, 0.0090044122, 0.3442946672, -0.1021628678, -0.0000088759, -0.0574492179, 0.0810768977, 0.0428765491, 0.3293022513, -0.1342086792, 0.0900827944, 0.0803892165, -0.2377046943, 0.0018994333, 0.2059975266, 0.2642816305, 0.3250569999, 0.0660545751, 0.2232560962, 0.2140724361, 0.1636392772, 0.0939776227, 0.1406055987, -0.1815868467, 0.2885157168, -0.0049595316, -0.1766980737, -0.0419011489, -0.0606857315, 0.0003026285, -0.0477681458, -0.0000772014, -0.0374269299, -0.1887809932, -0.1111243069, -0.0788320079, 0.0000262252, -0.0148960492, -0.0104165850, 0.0375075899, 0.0347735994, -0.0926210135, -0.0904745013, 0.0689321309, -0.1831899583, -0.1172776222, 0.1641153395, 0.1801182479, 0.0680164546, -0.1148638725, -0.0027260098, 0.0377684906, -0.1679589301, 0.2484630644, 0.0040524229, -0.1642590761, 0.1763984561, -0.0987739787, 0.1117614955, -0.0446007401, -0.0043452228, 0.0116526354, -0.0820499361, 0.0000080897, 0.1808641553, 0.0955205336, -0.3023423254, 0.0004827922, -0.0000195624, 0.1744180322, 0.2120121270, 0.1299636066, 0.0916430727, 0.0905438289, -0.2836925089, 0.0013070961, 0.1101654917, -0.0816553235, -0.0001048628, 0.1093995944, -0.0005997791, 0.0003005559, -0.0374558158, 0.0317398533, -0.1035344079, -0.1129536256, -0.0216589458, 0.1063029990, 0.1831294298, -0.1680613905, -0.0404065587, 0.1388276219, 0.0120150195, -0.0906555057, 0.2462101132, 0.0000662374, -0.0019171800, -0.0345542170, 0.2947046161, 0.0002059053, 0.0000186714, 0.1358058751, -0.2362613976, -0.3732898831, 0.0034791455, -0.0003862491, 0.1829677969, 0.0203494914, -0.1762368381, 0.1829698533, 0.3551065326, 0.0109676793, 0.0179852359, 0.0592165478, 0.0036497407, 0.0558712594, 0.1883338541, -0.2102983594, -0.0662805140, -0.0153971976, -0.0082744388, 0.0662484244, 0.1334055811, 0.0317580625, 0.0108955260, 0.0754508525, 0.1258696616, -0.0001894386, -0.0754008889, 0.1823002994, 0.0001447599, 0.1719917208, -0.0000050479, -0.0908223540, -0.0082004676, -0.2256464213, -0.0107331332, -0.0093589732, 0.3766967356, -0.0322358459, 0.1832747161, 0.1040111482, 0.1543105543, -0.0374200568, 0.1859553158, 0.0365481041, -0.1401273757, 0.0547328480, 0.1280177981, 0.0773407370, -0.0015140022, -0.0202101488, -0.2213563472, 0.1258528531, -0.1300358921, 0.0964428559, 0.0430780910, -0.0038178193, 0.0487218164, -0.0002034518, 0.0002343126, -0.0044119884, -0.1050797924, 0.1166656315, -0.0000064594, -0.0033324070, -0.0177110881, 0.0678203627, -0.0005199084, 0.2081304193, -0.0375383124, 0.0129091721, -0.0194718055, 0.0604078397, -0.0511218943, 0.0908845142, 0.0124079799, -0.0235826466, -0.0353232846, -0.1495972872, 0.2617439926, -0.0919893607, -0.0716248155, -0.0000208766, 0.0941218585, -0.0005191975, 0.1348314881, -0.0000596287, 0.0748034120, -0.1818001866, -0.0919512212, -0.0001130376, -0.2443110794, 0.1687938422, -0.0230714157, -0.0365949310, -0.0000223718, 0.1220653579, 0.1936145276, -0.5266649723, -0.2752910256, -0.0955564305, -0.2497640699, 0.0358771421, -0.0057081301, 0.2807185352, 0.0663420856, 0.0891601220, 0.2155041546, -0.0627699420, 0.3487176895, -0.4452992082, -0.0096503757, -0.1160574257, -0.0537086949, 0.0549829267, -0.1269160807, -0.1367905885, -0.0314712934, 0.0005561751, -0.0445561633, 0.1092782691, 0.1636945903, -0.0001344925, -0.0009726875, -0.0533507876, 0.4085536003, 0.2881309986, -0.0000004507, 0.0406110436, -0.0330742449, -0.3162310123, 0.0004415686, 0.0932738632, 0.0004291825, -0.0327974111, -0.2801453471, 0.1706230491, 0.1426837444, 0.0267200228, -0.1480815262, 0.2018854320, 0.1718693376, -0.0345095135, 0.1575336307, -0.0008028519, -0.0004432724, -0.0001148804, 0.0763979256, 0.0458531007, 0.1160769239, 0.0063385176, 0.0741295218, 0.0868073255, -0.2100878209, -0.0001127285, -0.2689945102, 0.0001821149, 0.0400063656, 0.1107985228, 0.0000233199, -0.0596497469, 0.1307893395, -0.1539322883, 0.0003343651, 0.0893577188, 0.2144884765, 0.0382158309, 0.0398236215, 0.0003109851, 0.0022454257, 0.0906327292, 0.0266822912, -0.0106714070, 0.2451225221, -0.1341609955, -0.0005802933, -0.0061082933, -0.0167320687, -0.0849401280, -0.1291288733, 0.1393239051, -0.0044912230, 0.0257541444, -0.0001167913, -0.0138701843, -0.0538705252, 0.0746096447, -0.1365860254, -0.0001178644, 0.0264042411, 0.1598440558, -0.0000078162, -0.0576422065, 0.0331415012, -0.1914275736, 0.1032436043, 0.0981137902, 0.2163219452, 0.0888692960, 0.0685648695, 0.1706564277, 0.0643313155, 0.0002359380, 0.2733837068, -0.0014221176, -0.0695778802, 0.0966350660, 0.1406494826, -0.0192284584, -0.0761634856, -0.1075999737, 0.0094889933, 0.0455360562, -0.1790118814, -0.1198607981, -0.0291117225, 0.1444132328, 0.0018383218, -0.0142540717, -0.0706851631, -0.1851883680, 0.0298761725, 0.2011204660, -0.0000072925, 0.0006078639, 0.0873784199, 0.2171230167, -0.0001504996, -0.1438113451, 0.0160636492, 0.1392326057, 0.1830816567, 0.0246038232, 0.0275063831, -0.0960782394, 0.0002709951, 0.1470184922, -0.0974486396, 0.1050786301, 0.2039786726, 0.1904918402, -0.0964607820, -0.0086129149, -0.0254196692, 0.2607505023, -0.1689665169, -0.1737515181, 0.0001703417, -0.1621813029, 0.2323811501, -0.0000129119, 0.2823781967, 0.1587537229, -0.2432613224, 0.2991163135, 0.0000008803, 0.0969840959, -0.0117148608, 0.3115065098, -0.1284377873, 0.1855847836, 0.0577463768, -0.0529337376, -0.0228193533, -0.0174016468, -0.0182551555, -0.0023567162, 0.0730197504, 0.0989920944, 0.0465564840, 0.0917133167, -0.0017458128, 0.3421848714, -0.0491788276, 0.1778583676, -0.0953515172, 0.0030364487, -0.0340053402, 0.2935465872, -0.0120817916, -0.0001614010, -0.1583106369, -0.0300586727, 0.0269868337, 0.0457820855, 0.2708999217, 0.0002462031, 0.0000017979, 0.0001181375, -0.1756320894, 0.0665033832, 0.2142184526, -0.2186947465, -0.0200881269, -0.0428937897, 0.1745046526, -0.1670522541, -0.1035924777, 0.0511045940, 0.0465438887, 0.2130542397, -0.0528952070, 0.2495895177, 0.0054144626, 0.2148265392, 0.1954566091, 0.1258476079, 0.1554714739, 0.2114949971, 0.0000023811, -0.1422192007, 0.0126480358, -0.1688908637, 0.1010893360, -0.0345935896, 0.0004314909, 0.0954188630, 0.0712477043, 0.1353463233, -0.0000262560, -0.2695182264, -0.0499656610, 0.0308302958, 0.0674366057, -0.2064390332, 0.0520254225, -0.1289077252, 0.0005443482, 0.0633098409, -0.1808110327, 0.0180403907, 0.2497993708, -0.1645983905, 0.1287966818, 0.0005529327, 0.1423097700, -0.1134274676, -0.0725215226, -0.0010981127, -0.0203689132, -0.0106489323, -0.2085383385, -0.0053038131, 0.0001785820, -0.0001580559, 0.1941753030, -0.0000229881, 0.0281718168, -0.0411325991, 0.0523085669, 0.1652343869, 0.0000008054, 0.1031080484, -0.1402190179, 0.0155889066, 0.0002212063, 0.2486160547, 0.1581661999, 0.0385975763, -0.0330678001, 0.0000279277, 0.1775963455, -0.2341319919, 0.0004262119, 0.1667779535, -0.0898709744, -0.0415066704, 0.1347412914, 0.1088181213, 0.0481226631, 0.0707892403, -0.1698387116, 0.2036416084, 0.0471891575, 0.1915228516, -0.1344841421, -0.0000634248, -0.0035632781, -0.0001044258, 0.0004203078, -0.1340229958, -0.0277949274, -0.1639677286, 0.0000156793, -0.0068791592, -0.0403273962, 0.1283073127, 0.0481829159, -0.0455601178, 0.0003454036, 0.2752169967, 0.1233559176, -0.2061720788, -0.0130037665, 0.0932939425, 0.0525614284, -0.0004630742, 0.0532199889, 0.1972589791, -0.0219037700, 0.2347760350, 0.0600745864, -0.0009096547, 0.2062152624, -0.0146868210, -0.1712961197, -0.1861582100, 0.0003022843, -0.0908663198, -0.0966118574, 0.0000079219, 0.2094540894, -0.1148323119, -0.1438756734, -0.0429493748, 0.0000186747, 0.0579403415, -0.0484849550, 0.1803828925, -0.0004232894, 0.0213999599, -0.0029124767, 0.0004901599, -0.0699630454, 0.0002596755, -0.1246209145, -0.0266833901, -0.0017515754, -0.0718459710, 0.0066245254, -0.0661371797, -0.2176370919, 0.0415211804, 0.0248385966, 0.0149278706, -0.0562187321, -0.0112120602, -0.0298963301, 0.0118263727, -0.0938440859, -0.0085329413, 0.1663706005, -0.0001439934, 0.0085969381, 0.0510460846, 0.1945122033, 0.0412804261, -0.0000002194, 0.1222477183, -0.1166178361, 0.1611619294, 0.1921038330, 0.3076876104, 0.0017883595, 0.1651397496, 0.0023201881, -0.1998393238, 0.1700825542, -0.0014131557, -0.0045087314, 0.1101418287, 0.0014390118, 0.3706937134, 0.3156931698, 0.0061528268, 0.3847055137, 0.1334163249, 0.0720254630, 0.0662550405, 0.2049551606, -0.0555994697, -0.0568131171, 0.1066262349, -0.0037449717, 0.0000105158, -0.0050029303, 0.1469204426, -0.0000142039, -0.2163502574, 0.0000125159, 0.0001147667, -0.0099030277, -0.0537287854, -0.0222344771, 0.0136917531, -0.0790950507, 0.0729663149, -0.1953421682, -0.1131659448, 0.0747192502, 0.0100784823, -0.0735424384, -0.0029924721, -0.1507657617, 0.0703353882, -0.0537310578, -0.1463079751, -0.2097581625, 0.0013257002, 0.1113979816, 0.1381363273, 0.0122393621, -0.0338943936, 0.0000148720, 0.0290039647, -0.0281000640, -0.0047906805, 0.0640578717, 0.0857828632, -0.0805629790, 0.1580629498, 0.0000080440, 0.1855471134, 0.3540609777, 0.1057453379, 0.0868098661, 0.1069670692, -0.1574234515, -0.0340854116, 0.1886237264, 0.0613108054, -0.0341195129, -0.0548636168, 0.2303467244, 0.0015715013, -0.0007499795, -0.0478319600, 0.0417830646, -0.1062325090, -0.0484354757, 0.0569491684, -0.0010008372, 0.2206448615, -0.0158108231, 0.0618252903, -0.0133453785, -0.0606708601, -0.0740534663, 0.0000986560, 0.0257322658, -0.0007621595, 0.1348724514, 0.0047603645, 0.0000288819, 0.0434886292, -0.0007103259, 0.0254256427, 0.0263825282, -0.1846782565, 0.2084101439, 0.1559573859, 0.0005784644, -0.0425333790, 0.2108122259, 0.1851783991, 0.1977299005, -0.0012227122, 0.1904048920, 0.0783125386, 0.0593158640, 0.1691705883, 0.0622002073, -0.1156186536, 0.3279978037, -0.0837095082, 0.0001513973, -0.0183310080, -0.0131103117, -0.0537249222, -0.1819962859, 0.0000244617, -0.0133911278, 0.2199557871, 0.0223040227, 0.0002575225, -0.0000003709, 0.0020531828, 0.2771503329, -0.1290779412, 0.0001990508, -0.0766467825, -0.0628928244, -0.0000815456, 0.0290821381, -0.0061668484, 0.2238862067, 0.1579471976, 0.1518591046, 0.0005118860, 0.1135019287, -0.2158372998, -0.1267794669, -0.0555892698, -0.1242051348, -0.0000048820, -0.0228566043, 0.1234247833, -0.0612203591, -0.2991753221, 0.0008267111, -0.0011614241, 0.3479543626, -0.0000115468, 0.1482997239, 0.0160187241, -0.1502518207, 0.3060948849, 0.0000164081, 0.1185238138, 0.1088251546, 0.3145346642, 0.0352982171, 0.0009431239, -0.0884885341, -0.0560117178, 0.3023573458, -0.0694896206, -0.4370273650, -0.1104345471, -0.1106493548, 0.0824726671, -0.2434664071, -0.1844543070, 0.0144136194, -0.0966264382, -0.1645718515, 0.1668876112, -0.1667191833, -0.0001951150, 0.0964119062, -0.2100254446, 0.0673343465, 0.0202104822, 0.0188579801, 0.0113442782, -0.1354243755, -0.0000305329, -0.1168843210, 0.2711732686, 0.0000043583, -0.0532574058, 0.1202043518, -0.0780743882, -0.0001540966, 0.2342462838, 0.1515747607, -0.2552868724, -0.2250686884, 0.0187183041, 0.0015270206, -0.0261030588, -0.0906756297, -0.2102344334, 0.0067052692, -0.1966429055, 0.0282705519, -0.2316791564, 0.0561434664, 0.0269630328, -0.1558018476, -0.0614451803, 0.0558623299, 0.2055376023, 0.0348664969, -0.0002032908, -0.0177898388, 0.0000571892, -0.0383977778, 0.1188663989, 0.2057109326, -0.0447358750, 0.0000046630, -0.0392284319, -0.1868329048, -0.1437763274, 0.0014322648, 0.0861811042, -0.0171767194, 0.0046749529, -0.1103266105, 0.1873174310, 0.1629090607, 0.0277847238, 0.1143973768, 0.0976315513, 0.0337005705, 0.0000561744, -0.0125773093, 0.2274760157, -0.1547165364, -0.0882146209, 0.0232588667, 0.0530181751, 0.1255186498, 0.0751874149, -0.0012518106, 0.0901096091, 0.0397145338, -0.0001027651, 0.0552409440, -0.2161201239, -0.0952087566, -0.0024084218, -0.0000250666, -0.0193300061, 0.0167932156, 0.0000369421, -0.0363786891, -0.2665370107, -0.0504743233, 0.0004380575, -0.1330188215, -0.0963569656, -0.2441417426, 0.0848185569, -0.0001013245, -0.1537872404, 0.0049816836, 0.1881426871, -0.0994815901, -0.0205512699, 0.0402314775, 0.0177870821, 0.0024449904, -0.1044438928, -0.0397763252, -0.1505774707, 0.1502898633, 0.0475515388, 0.1517472863, 0.0347018391, -0.0248861853, 0.0658562481, 0.2346064448, 0.3309750855, 0.0000188919, -0.0407915786, -0.1324480474, -0.1496691406, -0.0003170951, 0.0225551203, -0.0317371152, -0.2992970943, -0.1557255387, 0.0020845267, -0.0554261543, -0.1270566732, 0.1269232929, 0.1201256514, 0.2802267373, -0.0814657211, -0.1491717100, -0.1292318851, -0.0981201082, -0.0093847420, -0.2544388473, 0.0274890158, 0.0805267319, 0.1706925780, -0.0834188759, -0.0107054524, -0.1140518114, 0.0000913624, 0.2001705915, 0.1628980488, -0.0282427594, -0.0897364691, 0.0000155092, 0.0198333729, 0.1922182739, 0.2878136039, -0.0866188332, -0.0109692505, -0.1124041155, 0.1635492891, 0.1446465850, 0.0246645100, 0.1284981519, 0.0671445727, -0.1330772936, -0.0340962075, 0.2482821047, -0.0738782585, -0.0824017227, -0.0475535840, -0.0175471641, 0.1937600821, 0.0015292231, 0.1659752280, -0.0050740545, -0.0600668713, 0.1696035564, -0.0644520596, -0.0542764366, 0.0000841247, -0.1475676894, -0.0005442277, 0.1626772732, 0.0593047738, 0.0000014228, -0.0151140112, -0.2240577638, -0.1618155986, -0.1575240791, 0.0658290982, 0.1207516938, -0.2400754988, 0.1044754311, 0.0072574075, -0.0326857790, -0.0251079686, -0.0790276155, -0.1224069968, -0.1345992833, -0.0510354526, -0.0772320107, 0.0989921317, 0.0575215630, 0.0732292011, -0.1293218434, 0.0365482643, -0.0906815231, -0.5371953845, 0.2067884803, -0.0906939134, 0.3239234090, -0.0001994810, -0.0913500935, 0.0448829457, -0.1731691211, 0.1683672965, -0.0000014985, 0.0339442380, -0.0170928817, -0.0692966655, -0.2104128003, 0.2210988551, 0.2589632571, -0.3755442798, 0.0481728129, 0.1589040458, -0.1959637254, -0.1019791886, -0.0845746547, -0.1177892014, 0.2182670832, -0.3829881549, -0.1604039073, 0.1556211263, 0.2561280131, 0.1058398411, -0.2425743043, 0.1035516933, -0.0973755717, -0.0295120254, 0.0002709921, 0.0967306122, -0.0793574080, 0.0000238639, -0.0585025735, -0.0522915199, -0.0420265831, 0.0476341136, 0.0000136186, -0.0002175772, 0.0000397720, 0.0477577336, -0.0801664740, 0.1756196469, 0.1059050560, -0.1275154501, -0.1831391752, 0.0000745148, 0.2080471814, -0.1806018800, -0.0006803392, -0.0690024868, -0.2271382660, 0.1604947299, 0.1325541884, 0.2418521941, -0.0170359649, -0.0664145201, -0.0942869633, -0.0270151384, 0.2769971788, 0.3780156374, 0.0003888339, 0.1959855556, -0.0145147927, 0.0000025380, -0.0025061136, -0.1056285203, -0.2169530988, -0.6996167898, 0.0000194844, -0.0391537882, 0.1844600588, 0.3470029831, 0.0240492765, -0.0471390784, -0.3965281546, 0.4441681206, 0.0755968541, 0.0003645509, -0.0024062234, 0.2380528152, -0.0024696179, -0.4818804860, 0.0762648880, 0.0291030724, -0.0601376072, -0.2158043236, 0.0023755650, -0.2047749609, 0.2739711702, -0.0003858397, -0.3032288551, -0.4600324035, 0.2296588272, -0.0070123319, 0.2173514217, -0.0001729317, 0.0327809900, -0.0983285457, 0.0811743587, 0.4254443347, 0.0000041566, 0.0727005228, -0.1303600818, -0.2286269814, -0.1469334215, -0.1172559112, 0.2111097723, -0.2634183764, 0.0261492152, 0.2697259486, -0.0555849746, -0.1072248816, -0.1038757488, 0.1902088374, -0.0764199942, -0.0193679444, 0.0100359051, 0.0125769256, 0.0133016165, 0.1112109274, -0.3673720956, -0.0123284105, 0.2394016087, 0.3861289918, -0.3680940270, 0.0143241370, 0.1198512539, -0.0000582392, 0.1214623079, 0.2133941501, -0.0004586401, -0.0041451352, -0.0000016655, 0.0969712734, 0.0116520422, 0.2104332894, 0.2329333723, -0.2562357485, 0.0284070000, 0.0146817164, 0.0886888951, -0.4155357182, 0.0005247623, -0.0008893361, -0.0015869598, -0.1254877150, 0.1239947155, 0.2982886434, -0.0011132727, 0.0435235873, 0.0748199895, -0.0093868747, 0.0803313926, 0.1670046300, 0.0564033315, 0.1151589528, -0.0004958051, 0.0667070895, -0.0728645548, -0.0001457792, -0.0291943979, -0.0002141286, 0.1923072487, -0.0382928662, -0.0000163596, 0.0895058438, 0.0580254346, -0.0713780969, 0.2007702887, 0.2141505927, 0.0940978676, 0.1468843222, 0.0265804846, 0.0002020035, 0.2976733744, -0.1141797081, -0.0745954961, 0.1070187390, 0.1545751244, 0.2885398269, 0.0698296800, 0.1700033844, 0.1711566448, 0.0700352266, 0.0247420743, -0.1698701978, 0.4512999654, -0.0109354537, -0.0000855715, 0.1730551422, 0.0266988147, -0.0000141837, 0.2369344383, 0.0446024165, -0.3286390007, -0.1849581599, 0.0000120063, -0.1111522838, 0.1605281383, 0.0001061853, -0.1145097017, -0.0002217016, -0.5259733796, 0.3437809944, -0.0199745446, 0.0000345051, -0.0157840811, 0.1461614668, -0.1777567118, -0.5269548297, -0.0847009197, -0.0243280213, -0.0275291912, -0.2360807508, -0.0000607309, -0.0221911818, -0.0002355554, -0.0824258924, 0.0010496466, -0.0007618903, 0.0007721137, 0.0000018253, 0.1278037131, -0.0001306217, 0.0069021326, -0.0886027962, -0.0206543244, 0.0004285226, -0.0000248116, -0.0603895709, -0.0147342654, 0.1654680967, 0.1097133458, -0.0054544555, 0.0262954626, -0.0099270921, 0.0746463835, 0.0003343144, -0.0236633494, 0.1035275087, 0.0369457603, 0.1006112471, -0.3210551441, 0.1903671026, -0.0754763484, 0.2809948027, -0.0001050243, 0.0994788259, -0.0296213180, 0.1269964427, -0.0416645743, -0.1606802344, -0.0305856690, -0.0125301639, 0.1829027086, -0.0001517445, 0.1812150925, -0.0060951714, 0.0004386229, 0.0036811598, -0.0000049450, 0.1457269341, 0.2083336860, 0.3387424052, -0.1094211861, 0.0016679036, -0.1036047786, 0.1797223985, 0.1308031231, -0.0432525426, -0.2928325534, -0.0258195493, -0.0962966979, -0.0447447486, -0.1247233972, 0.1468797326, -0.0901843235, 0.2521480024, -0.0062047238, 0.0597032085, -0.1365348846, -0.0525886491, -0.0812036097, 0.2369165570, -0.0001693076, -0.0284286030, -0.1298726052, 0.0000893258, -0.0006204511, 0.0805812851, 0.1062957123, 0.0298011210, 0.0000028792, 0.1582235843, -0.0001266024, 0.1199390590, 0.0672567636, 0.2139934599, 0.1154191419, -0.0062135803, 0.0021889263, 0.0005852356, 0.1634337604, 0.0154930875, -0.1463473588, 0.0562089533, -0.1030036584, 0.1374882758, 0.2051282078, 0.0094483215, 0.1374864876, 0.0538849384, 0.0985347480, -0.0180125237, 0.1833541691, 0.0075855055, -0.2213477045, 0.1148470193, 0.0095370980, -0.0001593977, -0.0365669206, -0.1296790242, 0.0236060359, -0.3293142915, -0.0000090469, -0.2080776393, -0.0250610467, 0.2369208783, 0.0002470499, -0.2163245827, -0.0112410719, 0.1697255075, -0.0585954376, -0.2624475062, -0.0778998882, 0.2302888930, -0.0649386421, -0.0778787136, 0.0034254629, 0.2010069340, 0.0543414764, -0.1062187925, -0.0648576319, -0.0582156740, 0.2781266868, 0.1521221995, 0.0970642567, -0.4037731588, 0.1951673329, -0.1416760087, 0.0634572059, -0.0001409546, 0.0035927382, -0.0276217889, 0.1215456873, 0.3799577951, -0.0000035602, -0.1500136256, -0.0245535802, -0.4398098886, -0.2492869347, -0.0688170195, 0.2654681802, -0.1755718738, 0.1705846488, -0.0122846682, -0.0108119566, -0.0314253420, -0.0964450836, -0.0119164521, -0.0996753797, -0.4820902944, 0.0065496690, -0.1248500347, 0.2561372221, 0.0835917890, -0.4510052800, 0.0480120480, 0.0064639668, 0.1237818226, -0.0421209224, 0.1015935615, 0.2470644712, -0.0001650826, 0.2640791237, 0.0759466887, 0.1549304724, 0.0824804157, -0.0000055472, 0.0334270261, 0.0545745306, 0.2895192206, -0.0188927967, 0.0458590239, -0.1603458971, 0.1429703832, 0.0002128931, -0.1863139868, -0.0629294962, -0.0442378484, -0.1359087676, 0.0135526853, -0.0127283493, 0.0821676105, 0.0535986908, -0.0732828453, -0.0003505188, 0.0216759369, -0.0982606113, 0.1132714152, 0.0706262514, -0.0063382648, 0.0246513113, 0.1993546635, -0.1498362422, -0.0002075381, 0.0005198934, -0.0590144917, -0.0227836501, 0.0032092277, -0.0000089468, -0.0117559582, 0.2074568421, -0.0000197611, -0.0002950023, -0.1419721097, -0.0413916782, 0.0001722963, -0.0226496682, 0.0936700627, 0.1573812366, 0.1521024108, 0.1075794324, -0.2856040001, -0.0957463086, -0.2096981555, -0.0975985453, -0.1609632224, 0.2473406047, -0.0343375020, 0.0437750816, -0.1246161386, -0.0483238511, -0.0770593733, 0.0000046468, 0.1449361891, -0.0795187950, -0.0000212541, -0.2081133723, 0.0566699356, 0.0276402030, -0.0001356929, 0.0000086919, 0.0013811463, 0.0004052172, -0.0050248629, 0.0530626439, -0.1355618834, -0.0012628433, 0.0109817274, 0.0212268289, 0.0532935560, -0.0010981127, -0.0582343116, 0.2474923134, 0.1686415225, 0.1755542010, 0.2499890625, -0.0265691224, 0.0505049415, -0.0474474356, 0.0292162150, 0.1011011079, 0.1547725201, 0.0197514612, 0.0001319038, -0.0004570127, -0.0362836383, -0.1502036601, -0.0001706201, -0.1239193678, -0.0000955009, 0.2166362852, 0.0321471579, 0.0000058824, 0.0708175525, -0.0002113019, -0.1539088637, -0.0742829293, 0.0111685526, 0.0056426963, -0.1160417870, 0.0402244031, -0.0002290462, 0.0482368618, 0.0086568631, 0.1080087572, 0.1072025746, -0.1604472995, 0.0000193971, 0.1707792133, -0.0047417087, -0.0000055195, 0.0059001991, -0.1521677077, -0.1264666170, 0.0339082442, 0.0058430564, -0.0011173561, 0.1463706642, 0.2450401932, -0.0001646691, -0.2832809985, 0.0005956773, 0.1906934083, -0.0896320790, -0.0000104670, 0.0433883145, -0.1090183556, 0.0201980732, 0.0003650988, -0.0004671099, 0.1992800981, -0.1147919446, -0.2146037817, -0.0005674046, 0.1414455920, 0.0621076673, -0.1727311909, 0.0379888155, 0.0502441451, -0.0082293870, -0.0003167954, -0.1509919316, 0.1972280145, 0.0113130054, -0.0003773995, -0.0093804169, 0.0974792540, 0.0038511017, 0.0005628780, 0.2283600718, -0.3338134289, -0.0000864567, -0.0171308592, 0.0197915230, -0.0004586091, -0.1770377159, 0.0000149484, -0.2465640306, 0.0629732013, -0.0158429090, 0.0873211399, 0.0004024038, -0.0055227568, 0.1099837869, -0.2499255836, 0.0114831915, 0.4133042097, 0.1157170385, 0.1192172617, 0.2041328996, 0.0903995037, 0.3365078866, 0.1515660286, -0.0601071194, 0.0020103164, -0.2948213220, 0.3233528733, 0.0882965103, -0.0674680099, -0.0292433053, -0.0241019502, 0.1649082154, 0.1104145348, -0.0000013613, -0.0853008181, -0.0196843445, -0.0005280646, 0.0008527177, -0.0000154456, -0.0003591882, -0.0844411030, -0.0628901199, -0.0324527696, 0.0912890732, -0.2055220157, 0.0733870640, -0.1038928553, -0.0567621328, -0.0011104206, -0.1079491377, -0.1050739959, 0.0004812780, 0.0363436714, 0.0382776335, -0.0206399430, 0.0572128333, -0.1067052186, 0.0037539212, -0.1308766752, -0.0098726172, -0.0992980897, 0.1919836551, -0.0003061318, 0.0271942634, 0.1303034723, 0.0000398733, 0.1067566723, -0.0515422076, 0.1237949580, -0.0860625952, -0.0000189364, -0.0635961816, -0.1197064444, 0.0397426821, -0.0485825464, 0.0999672860, 0.1367318034, -0.0181407835, -0.0039307461, -0.0268206690, 0.0675347075, 0.1546442658, -0.0004729039, -0.0294579417, -0.1198780239, 0.1427853554, 0.0379144140, 0.3188316226, 0.1377204806, -0.1279445887, -0.0009178498, 0.0920874402, -0.0001896694, -0.0041144737, -0.0000412148, -0.0740288198, 0.0102571258, -0.0000306581, 0.0066481661, 0.1364209801, -0.1422783881, 0.0280670766, 0.0000098852, -0.1503628045, -0.0617916808, -0.0497505553, -0.0027000068, 0.1544776857, -0.0874013603, 0.1729114354, -0.2066599727, -0.0000474536, -0.0030851695, -0.0733708292, 0.0111106765, -0.0067936508, -0.1155317798, -0.1051605120, -0.0031042213, 0.2209339589, -0.1011180431, 0.0374635234, 0.0015886001, 0.2413335145, 0.0316132642, -0.2358995378, 0.0750852972, 0.1301502138, 0.1613680273, 0.0003080415, 0.1209780276, -0.0000240170, 0.0003983495, 0.1558770984, -0.0000289480, 0.0268258937, -0.1808869690, -0.2426083088, -0.0420298390, 0.2007354051, 0.3338453770, -0.0284781158, 0.1407036036, 0.2260099947, -0.0998194367, -0.2715324163, -0.1241332144, 0.0909020677, -0.0222346727, -0.1235923097, 0.0284517165, 0.2014085352, -0.0045134486, 0.0007026439, -0.0454955362};
#endif

#endif
